{
    "deformerWeight": {
        "headerInfo": {
            "fileName": "G:\\My Drive\\Projects\\KafkaProj\\share\\Character\\Jacob\\Rig\\QuickData\\Skin/Jacob_FaceShield_Geo.json",
            "worldMatrix": [
                1.0,
                0.0,
                0.0,
                0.0,
                0.0,
                1.0,
                0.0,
                0.0,
                0.0,
                0.0,
                1.0,
                0.0,
                0.0,
                0.0,
                0.0,
                1.0
            ]
        },
        "shapes": [
            {
                "name": "Jacob_FaceShield_GeoShapeDeformed",
                "group": 0,
                "stride": 3,
                "size": 64,
                "max": 64,
                "points": [
                    {
                        "index": 0,
                        "value": [
                            3.876087188720703,
                            2.744969606399536,
                            9.702849388122559
                        ]
                    },
                    {
                        "index": 1,
                        "value": [
                            3.876087188720703,
                            13.26842975616455,
                            9.702849388122559
                        ]
                    },
                    {
                        "index": 2,
                        "value": [
                            6.6823577880859379,
                            2.744969606399536,
                            8.029967308044434
                        ]
                    },
                    {
                        "index": 3,
                        "value": [
                            6.6823577880859379,
                            13.26842975616455,
                            8.0299711227417
                        ]
                    },
                    {
                        "index": 4,
                        "value": [
                            8.938136100769043,
                            3.517005443572998,
                            5.531947135925293
                        ]
                    },
                    {
                        "index": 5,
                        "value": [
                            8.93813705444336,
                            12.496394157409668,
                            5.531949520111084
                        ]
                    },
                    {
                        "index": 6,
                        "value": [
                            8.263778686523438,
                            13.041173934936524,
                            6.226580619812012
                        ]
                    },
                    {
                        "index": 7,
                        "value": [
                            8.263778686523438,
                            2.972223997116089,
                            6.226580619812012
                        ]
                    },
                    {
                        "index": 8,
                        "value": [
                            9.435477256774903,
                            6.157871246337891,
                            5.465965747833252
                        ]
                    },
                    {
                        "index": 9,
                        "value": [
                            9.435477256774903,
                            9.890573501586914,
                            5.465965747833252
                        ]
                    },
                    {
                        "index": 10,
                        "value": [
                            9.671191215515137,
                            10.025962829589844,
                            5.65823221206665
                        ]
                    },
                    {
                        "index": 11,
                        "value": [
                            9.671191215515137,
                            6.021810531616211,
                            5.65823221206665
                        ]
                    },
                    {
                        "index": 12,
                        "value": [
                            8.92959976196289,
                            10.013761520385743,
                            6.711915016174316
                        ]
                    },
                    {
                        "index": 13,
                        "value": [
                            8.92959976196289,
                            6.037554740905762,
                            6.711915016174316
                        ]
                    },
                    {
                        "index": 14,
                        "value": [
                            7.221262454986572,
                            10.010541915893555,
                            8.695592880249024
                        ]
                    },
                    {
                        "index": 15,
                        "value": [
                            7.221261501312256,
                            6.041474342346191,
                            8.695592880249024
                        ]
                    },
                    {
                        "index": 16,
                        "value": [
                            4.187129497528076,
                            10.010601043701172,
                            10.504313468933106
                        ]
                    },
                    {
                        "index": 17,
                        "value": [
                            4.187129497528076,
                            6.041416168212891,
                            10.504313468933106
                        ]
                    },
                    {
                        "index": 18,
                        "value": [
                            3.988295316696167,
                            2.3892321586608888,
                            9.983381271362305
                        ]
                    },
                    {
                        "index": 19,
                        "value": [
                            6.875997066497803,
                            2.389359951019287,
                            8.26197624206543
                        ]
                    },
                    {
                        "index": 20,
                        "value": [
                            8.495019912719727,
                            2.6623406410217287,
                            6.414745330810547
                        ]
                    },
                    {
                        "index": 21,
                        "value": [
                            9.174933433532715,
                            3.193671226501465,
                            5.711429595947266
                        ]
                    },
                    {
                        "index": 22,
                        "value": [
                            8.495019912719727,
                            13.351058959960938,
                            6.414745330810547
                        ]
                    },
                    {
                        "index": 23,
                        "value": [
                            9.174933433532715,
                            12.819729804992676,
                            5.711429595947266
                        ]
                    },
                    {
                        "index": 24,
                        "value": [
                            6.875997066497803,
                            13.624038696289063,
                            8.26197624206543
                        ]
                    },
                    {
                        "index": 25,
                        "value": [
                            3.988295316696167,
                            13.624165534973145,
                            9.983381271362305
                        ]
                    },
                    {
                        "index": 26,
                        "value": [
                            1.5792648792266846,
                            2.744969606399536,
                            10.355053901672364
                        ]
                    },
                    {
                        "index": 27,
                        "value": [
                            1.5792648792266846,
                            13.26842975616455,
                            10.35505199432373
                        ]
                    },
                    {
                        "index": 28,
                        "value": [
                            1.705134391784668,
                            10.010672569274903,
                            11.208757400512696
                        ]
                    },
                    {
                        "index": 29,
                        "value": [
                            1.705134391784668,
                            6.041347026824951,
                            11.208757400512696
                        ]
                    },
                    {
                        "index": 30,
                        "value": [
                            1.6249992847442628,
                            2.389068841934204,
                            10.654435157775879
                        ]
                    },
                    {
                        "index": 31,
                        "value": [
                            1.6249992847442628,
                            13.62432861328125,
                            10.654435157775879
                        ]
                    },
                    {
                        "index": 32,
                        "value": [
                            -3.876087188720703,
                            2.744969606399536,
                            9.702849388122559
                        ]
                    },
                    {
                        "index": 33,
                        "value": [
                            -3.876087188720703,
                            13.26842975616455,
                            9.702849388122559
                        ]
                    },
                    {
                        "index": 34,
                        "value": [
                            -6.6823577880859379,
                            2.744969606399536,
                            8.02996826171875
                        ]
                    },
                    {
                        "index": 35,
                        "value": [
                            -6.682359218597412,
                            13.26842975616455,
                            8.0299711227417
                        ]
                    },
                    {
                        "index": 36,
                        "value": [
                            -8.938135147094727,
                            3.517005443572998,
                            5.531949043273926
                        ]
                    },
                    {
                        "index": 37,
                        "value": [
                            -8.938136100769043,
                            12.496394157409668,
                            5.5319504737854
                        ]
                    },
                    {
                        "index": 38,
                        "value": [
                            -8.263779640197754,
                            13.041173934936524,
                            6.226580619812012
                        ]
                    },
                    {
                        "index": 39,
                        "value": [
                            -8.263779640197754,
                            2.972223997116089,
                            6.226580619812012
                        ]
                    },
                    {
                        "index": 40,
                        "value": [
                            -9.435476303100586,
                            6.157871246337891,
                            5.46596622467041
                        ]
                    },
                    {
                        "index": 41,
                        "value": [
                            -9.435476303100586,
                            9.890573501586914,
                            5.46596622467041
                        ]
                    },
                    {
                        "index": 42,
                        "value": [
                            -9.671191215515137,
                            10.025962829589844,
                            5.658233642578125
                        ]
                    },
                    {
                        "index": 43,
                        "value": [
                            -9.671191215515137,
                            6.021810531616211,
                            5.658233642578125
                        ]
                    },
                    {
                        "index": 44,
                        "value": [
                            -8.929597854614258,
                            10.013761520385743,
                            6.711916446685791
                        ]
                    },
                    {
                        "index": 45,
                        "value": [
                            -8.929597854614258,
                            6.037554740905762,
                            6.711916446685791
                        ]
                    },
                    {
                        "index": 46,
                        "value": [
                            -7.221264839172363,
                            10.010541915893555,
                            8.69559383392334
                        ]
                    },
                    {
                        "index": 47,
                        "value": [
                            -7.2212629318237309,
                            6.041474342346191,
                            8.69559383392334
                        ]
                    },
                    {
                        "index": 48,
                        "value": [
                            -4.187129020690918,
                            10.010601043701172,
                            10.504312515258789
                        ]
                    },
                    {
                        "index": 49,
                        "value": [
                            -4.187129020690918,
                            6.041416168212891,
                            10.504312515258789
                        ]
                    },
                    {
                        "index": 50,
                        "value": [
                            -3.988295316696167,
                            2.3892321586608888,
                            9.983381271362305
                        ]
                    },
                    {
                        "index": 51,
                        "value": [
                            -6.875998020172119,
                            2.389359951019287,
                            8.261978149414063
                        ]
                    },
                    {
                        "index": 52,
                        "value": [
                            -8.495019912719727,
                            2.6623406410217287,
                            6.414746284484863
                        ]
                    },
                    {
                        "index": 53,
                        "value": [
                            -9.174933433532715,
                            3.193671226501465,
                            5.711430549621582
                        ]
                    },
                    {
                        "index": 54,
                        "value": [
                            -8.495019912719727,
                            13.351058959960938,
                            6.414746284484863
                        ]
                    },
                    {
                        "index": 55,
                        "value": [
                            -9.174933433532715,
                            12.819729804992676,
                            5.711430549621582
                        ]
                    },
                    {
                        "index": 56,
                        "value": [
                            -6.875998020172119,
                            13.624038696289063,
                            8.261978149414063
                        ]
                    },
                    {
                        "index": 57,
                        "value": [
                            -3.988295316696167,
                            13.624165534973145,
                            9.983381271362305
                        ]
                    },
                    {
                        "index": 58,
                        "value": [
                            -1.5792655944824219,
                            2.744969606399536,
                            10.355053901672364
                        ]
                    },
                    {
                        "index": 59,
                        "value": [
                            -1.5792648792266846,
                            13.26842975616455,
                            10.355052947998047
                        ]
                    },
                    {
                        "index": 60,
                        "value": [
                            -1.7051351070404053,
                            10.010672569274903,
                            11.208756446838379
                        ]
                    },
                    {
                        "index": 61,
                        "value": [
                            -1.7051351070404053,
                            6.041347026824951,
                            11.208756446838379
                        ]
                    },
                    {
                        "index": 62,
                        "value": [
                            -1.6249992847442628,
                            2.389068841934204,
                            10.654434204101563
                        ]
                    },
                    {
                        "index": 63,
                        "value": [
                            -1.6249992847442628,
                            13.62432861328125,
                            10.654434204101563
                        ]
                    }
                ]
            }
        ],
        "weights": [
            {
                "deformer": "skinCluster8",
                "source": "Body_M",
                "shape": "Jacob_FaceShield_GeoShapeDeformed",
                "layer": 0,
                "defaultValue": 0.0,
                "points": [
                    {
                        "index": 0,
                        "value": 1.0
                    },
                    {
                        "index": 1,
                        "value": 0.9999999999999999
                    },
                    {
                        "index": 2,
                        "value": 1.0
                    },
                    {
                        "index": 3,
                        "value": 1.0
                    },
                    {
                        "index": 4,
                        "value": 1.0
                    },
                    {
                        "index": 5,
                        "value": 1.0
                    },
                    {
                        "index": 6,
                        "value": 1.0
                    },
                    {
                        "index": 7,
                        "value": 1.0
                    },
                    {
                        "index": 8,
                        "value": 1.0
                    },
                    {
                        "index": 9,
                        "value": 1.0
                    },
                    {
                        "index": 10,
                        "value": 1.0
                    },
                    {
                        "index": 11,
                        "value": 1.0
                    },
                    {
                        "index": 12,
                        "value": 1.0
                    },
                    {
                        "index": 13,
                        "value": 1.0
                    },
                    {
                        "index": 14,
                        "value": 1.0
                    },
                    {
                        "index": 15,
                        "value": 1.0
                    },
                    {
                        "index": 16,
                        "value": 1.0
                    },
                    {
                        "index": 17,
                        "value": 1.0
                    },
                    {
                        "index": 18,
                        "value": 1.0
                    },
                    {
                        "index": 19,
                        "value": 1.0
                    },
                    {
                        "index": 20,
                        "value": 1.0
                    },
                    {
                        "index": 21,
                        "value": 1.0
                    },
                    {
                        "index": 22,
                        "value": 1.0
                    },
                    {
                        "index": 23,
                        "value": 1.0
                    },
                    {
                        "index": 24,
                        "value": 0.9999999999999999
                    },
                    {
                        "index": 25,
                        "value": 1.0
                    },
                    {
                        "index": 26,
                        "value": 1.0
                    },
                    {
                        "index": 27,
                        "value": 1.0
                    },
                    {
                        "index": 28,
                        "value": 1.0
                    },
                    {
                        "index": 29,
                        "value": 1.0
                    },
                    {
                        "index": 30,
                        "value": 1.0
                    },
                    {
                        "index": 31,
                        "value": 1.0
                    },
                    {
                        "index": 32,
                        "value": 1.0
                    },
                    {
                        "index": 33,
                        "value": 1.0
                    },
                    {
                        "index": 34,
                        "value": 1.0
                    },
                    {
                        "index": 35,
                        "value": 1.0
                    },
                    {
                        "index": 36,
                        "value": 1.0
                    },
                    {
                        "index": 37,
                        "value": 1.0
                    },
                    {
                        "index": 38,
                        "value": 0.9999999999999999
                    },
                    {
                        "index": 39,
                        "value": 1.0
                    },
                    {
                        "index": 40,
                        "value": 1.0
                    },
                    {
                        "index": 41,
                        "value": 1.0
                    },
                    {
                        "index": 42,
                        "value": 1.0
                    },
                    {
                        "index": 43,
                        "value": 1.0
                    },
                    {
                        "index": 44,
                        "value": 1.0
                    },
                    {
                        "index": 45,
                        "value": 1.0
                    },
                    {
                        "index": 46,
                        "value": 1.0
                    },
                    {
                        "index": 47,
                        "value": 1.0
                    },
                    {
                        "index": 48,
                        "value": 1.0
                    },
                    {
                        "index": 49,
                        "value": 1.0
                    },
                    {
                        "index": 50,
                        "value": 1.0
                    },
                    {
                        "index": 51,
                        "value": 1.0
                    },
                    {
                        "index": 52,
                        "value": 1.0
                    },
                    {
                        "index": 53,
                        "value": 1.0
                    },
                    {
                        "index": 54,
                        "value": 0.9999999999999999
                    },
                    {
                        "index": 55,
                        "value": 1.0
                    },
                    {
                        "index": 56,
                        "value": 1.0
                    },
                    {
                        "index": 57,
                        "value": 1.0
                    },
                    {
                        "index": 58,
                        "value": 1.0
                    },
                    {
                        "index": 59,
                        "value": 1.0
                    },
                    {
                        "index": 60,
                        "value": 1.0
                    },
                    {
                        "index": 61,
                        "value": 1.0
                    },
                    {
                        "index": 62,
                        "value": 1.0
                    },
                    {
                        "index": 63,
                        "value": 1.0
                    }
                ],
                "size": 64,
                "max": 63
            }
        ]
    }
}